nelements=1
elements: Ar

lmax=0

2 FS parameters:  1.000000 1.000000
core energy-cutoff parameters: 100000.000000000000000000 1.000000000000000000
E0: 0.0

radbasename=ACE1.jl.Basic
haspair: f

transform parameters: p=2 r0=0.4
cutoff parameters: rcut=2.0 xl=0.21777777777777774 xr=1.2345679012345676 pl=2 pr=0
recursion coefficients: maxn=8
 2.16283079715856 0.0 0.0
 6.982079372093176 -7.436630387163988 0.0
 5.204143807395934 -4.661022123261302 -0.7453572968815781
 4.659824421107207 -3.857633971005825 -0.8954065440091817
 4.410336548408379 -3.5016103151924844 -0.9464598126125223
 4.272742139926671 -3.3096079152863025 -0.9688018347417544
 4.188073621677507 -3.1933222224751114 -0.9801840327648278
 4.1320005620500115 -3.117214959201633 -0.9866112526443436
tests: ntests=0

rankmax=1
ndensitymax=1

num_c_tilde_max=8
num_ms_combinations_max=1
total_basis_size_rank1: 8
ctilde_basis_func: rank=1 ndens=1 mu0=0 mu=( 0 )
n=( 1 )
l=( 0 )
num_ms=1
< 0 >:  0.28209479177387814
ctilde_basis_func: rank=1 ndens=1 mu0=0 mu=( 0 )
n=( 3 )
l=( 0 )
num_ms=1
< 0 >:  0.28209479177387814
ctilde_basis_func: rank=1 ndens=1 mu0=0 mu=( 0 )
n=( 7 )
l=( 0 )
num_ms=1
< 0 >:  0.28209479177387814
ctilde_basis_func: rank=1 ndens=1 mu0=0 mu=( 0 )
n=( 5 )
l=( 0 )
num_ms=1
< 0 >:  0.28209479177387814
ctilde_basis_func: rank=1 ndens=1 mu0=0 mu=( 0 )
n=( 8 )
l=( 0 )
num_ms=1
< 0 >:  0.28209479177387814
ctilde_basis_func: rank=1 ndens=1 mu0=0 mu=( 0 )
n=( 2 )
l=( 0 )
num_ms=1
< 0 >:  0.28209479177387814
ctilde_basis_func: rank=1 ndens=1 mu0=0 mu=( 0 )
n=( 4 )
l=( 0 )
num_ms=1
< 0 >:  0.28209479177387814
ctilde_basis_func: rank=1 ndens=1 mu0=0 mu=( 0 )
n=( 6 )
l=( 0 )
num_ms=1
< 0 >:  0.28209479177387814
total_basis_size: 0
