nelements=1
elements: Ar

lmax=0

2 FS parameters:  1.000000 1.000000
core energy-cutoff parameters: 100000.000000000000000000 1.000000000000000000
E0: 0.0

radbasename=ACE1.jl.Basic
haspair: f

transform parameters: p=2 r0=0.4
cutoff parameters: rcut=2.0 xl=0.21777777777777774 xr=1.2345679012345676 pl=2 pr=0
recursion coefficients: maxn=8
 2.1628307971585605 0.0 0.0
 6.982079372093177 -7.4366303871639925 0.0
 5.204143807395933 -4.661022123261298 -0.7453572968815594
 4.659824421107206 -3.857633971005828 -0.8954065440091942
 4.410336548408379 -3.5016103151924773 -0.946459812612508
 4.272742139926671 -3.30960791528631 -0.9688018347417795
 4.188073621677506 -3.1933222224751048 -0.9801840327648038
 4.132000562050012 -3.117214959201639 -0.9866112526443651
tests: ntests=0

rankmax=1
ndensitymax=1

num_c_tilde_max=8
num_ms_combinations_max=1
total_basis_size_rank1: 8
ctilde_basis_func: rank=1 ndens=1 mu0=0 mu=( 0 )
n=( 2 )
l=( 0 )
num_ms=1
< 0 >:  0.28209479177387814
ctilde_basis_func: rank=1 ndens=1 mu0=0 mu=( 0 )
n=( 1 )
l=( 0 )
num_ms=1
< 0 >:  0.28209479177387814
ctilde_basis_func: rank=1 ndens=1 mu0=0 mu=( 0 )
n=( 7 )
l=( 0 )
num_ms=1
< 0 >:  0.28209479177387814
ctilde_basis_func: rank=1 ndens=1 mu0=0 mu=( 0 )
n=( 4 )
l=( 0 )
num_ms=1
< 0 >:  0.28209479177387814
ctilde_basis_func: rank=1 ndens=1 mu0=0 mu=( 0 )
n=( 5 )
l=( 0 )
num_ms=1
< 0 >:  0.28209479177387814
ctilde_basis_func: rank=1 ndens=1 mu0=0 mu=( 0 )
n=( 6 )
l=( 0 )
num_ms=1
< 0 >:  0.28209479177387814
ctilde_basis_func: rank=1 ndens=1 mu0=0 mu=( 0 )
n=( 8 )
l=( 0 )
num_ms=1
< 0 >:  0.28209479177387814
ctilde_basis_func: rank=1 ndens=1 mu0=0 mu=( 0 )
n=( 3 )
l=( 0 )
num_ms=1
< 0 >:  0.28209479177387814
total_basis_size: 0
